<?xml version="1.0"?>
<opencv_storage>
<!-- Created using Computer Vision System Toolbox(tm) for MATLAB(R) -->
<!-- Version 8.3.0.532 (R2014a) -->
<!-- Compatible with OpenCV 2.4 -->
<cascade>
  <stageType>BOOST</stageType>
  <featureType>HOG</featureType>
  <height>32</height>
  <width>44</width>
  <stageParams>
    <boostType>GAB</boostType>
    <minHitRate>9.9500000476837158e-01</minHitRate>
    <maxFalseAlarm>8.9999997615814209e-01</maxFalseAlarm>
    <weightTrimRate>9.4999999999999996e-01</weightTrimRate>
    <maxDepth>1</maxDepth>
    <maxWeakCount>100</maxWeakCount></stageParams>
  <featureParams>
    <maxCatCount>0</maxCatCount>
    <featSize>36</featSize></featureParams>
  <stageNum>1</stageNum>
  <stages>
    <!-- stage 0 -->
    <_>
      <maxWeakCount>3</maxWeakCount>
      <stageThreshold>-7.0957219600677490e-01</stageThreshold>
      <weakClassifiers>
        <_>
          <internalNodes>
            0 -1 0 6.3619688153266907e-02</internalNodes>
          <leafValues>
            -7.5324672460556030e-01 7.0967739820480347e-01</leafValues></_>
        <_>
          <internalNodes>
            0 -1 1 3.9206821471452713e-02</internalNodes>
          <leafValues>
            -6.4008754491806030e-01 8.4194922447204590e-01</leafValues></_>
        <_>
          <internalNodes>
            0 -1 2 1.5933362767100334e-02</internalNodes>
          <leafValues>
            6.8376207351684570e-01 -7.0512902736663818e-01</leafValues></_></weakClassifiers></_></stages>
  <features>
    <_>
      <rect>
        4 16 8 8 31</rect></_>
    <_>
      <rect>
        28 16 8 8 28</rect></_>
    <_>
      <rect>
        12 0 16 8 7</rect></_></features></cascade>
</opencv_storage>
